<?xml version="1.0"?>
<opencv_storage>
<cascade>
  <stageType>BOOST</stageType>
  <featureType>LBP</featureType>
  <height>32</height>
  <width>16</width>
  <stageParams>
    <boostType>GAB</boostType>
    <minHitRate>9.9900001287460327e-01</minHitRate>
    <maxFalseAlarm>1.0000000474974513e-03</maxFalseAlarm>
    <weightTrimRate>9.4999999999999996e-01</weightTrimRate>
    <maxDepth>2</maxDepth>
    <maxWeakCount>30</maxWeakCount></stageParams>
  <featureParams>
    <maxCatCount>256</maxCatCount>
    <featSize>1</featSize></featureParams>
  <stageNum>2</stageNum>
  <stages>
    <!-- stage 0 -->
    <_>
      <maxWeakCount>5</maxWeakCount>
      <stageThreshold>7.9825180768966675e-01</stageThreshold>
      <weakClassifiers>
        <_>
          <internalNodes>
            1 2 10 -285212673 -285278466 -967057441 -487653650 -2097153
            -262165 -67108865 -1 0 -1 4 -1 -1 -67121153 -2101505
            -2097153 -1 -1 -1 -2 -3 33 -610282699 -648572543 1073938707
            -1012187109 -745289632 -1433829245 -1333166016 -68158497</internalNodes>
          <leafValues>
            -9.8937743902206421e-01 5.0819671154022217e-01
            -9.1919189691543579e-01 9.7113609313964844e-01</leafValues></_>
        <_>
          <internalNodes>
            1 2 3 -1 -286261505 -299960353 -285278241 -1025 -536874001
            -67108865 -150994945 0 -1 9 -1 -268435457 -711990817
            -285217057 -69210369 -3413057 -67108865 -1 -2 -3 32
            -49819339 -788316093 -980332515 -587001585 -536114432
            -368369536 -2104817408 -3151017</internalNodes>
          <leafValues>
            -9.8655349016189575e-01 4.9259650707244873e-01
            -9.1554659605026245e-01 9.4932949542999268e-01</leafValues></_>
        <_>
          <internalNodes>
            1 2 1 -69633 -286330881 -279722753 -286331154 -1025 -9217
            -2097153 -4097 0 -1 0 -1 -318768161 -108801825 -117440514
            -338691073 -338699521 -2097409 -1 -2 -3 18 1360214800
            -238583465 -1858007018 -82110405 193669951 -359989117
            -1450460164 -4216065</internalNodes>
          <leafValues>
            -9.9226164817810059e-01 2.6088073849678040e-01
            -9.1360741853713989e-01 9.1312319040298462e-01</leafValues></_>
        <_>
          <internalNodes>
            1 2 30 -201 -2098689 -541075521 -2049 2139093777 -2097153
            -1099 -1 0 -1 38 -1 -2081 -205532165 -1 -69730465 -1058061
            -67109003 -1 -2 -3 16 -364983554 -784887469 323043421
            -674267057 -1803321169 -1429635062 1271005519 1064765702</internalNodes>
          <leafValues>
            -9.7214639186859131e-01 4.2799037694931030e-01
            -9.0072137117385864e-01 9.1605448722839355e-01</leafValues></_>
        <_>
          <internalNodes>
            1 2 7 -269553666 -65538 -4325377 -3223602 -1 -1 -1 -1137 0
            -1 5 -1 -16785409 -847253505 -2101249 -67109889 -6296641
            -4097 -1 -2 -3 15 -547754200 -537423397 -216269506 -41970789
            -216403394 -2897409 -105927748 -65</internalNodes>
          <leafValues>
            -9.9087786674499512e-01 2.4870251119136810e-01
            -9.1849583387374878e-01 8.7816703319549561e-01</leafValues></_></weakClassifiers></_>
    <!-- stage 1 -->
    <_>
      <maxWeakCount>8</maxWeakCount>
      <stageThreshold>2.2306402027606964e-01</stageThreshold>
      <weakClassifiers>
        <_>
          <internalNodes>
            1 2 24 871415807 -131585 2078276095 -131587 -2245633
            -4337441 -69206017 -197636 0 -1 27 938868735 -143105 -1
            -132609 -71304193 -3154433 -1140851713 -8585218 -2 -3 8
            -17891586 -16842753 -285290770 -17891589 -1610640773 -147301
            -1694371841 -65</internalNodes>
          <leafValues>
            -9.4979238510131836e-01 1.6349810361862183e-01
            -7.5751876831054688e-01 8.5600864887237549e-01</leafValues></_>
        <_>
          <internalNodes>
            1 2 36 2113884504 -67112481 -583935617 -2105377 -132623876
            -54037 -225379333 -1 0 -1 14 871579643 -137102893 -371197441
            -513 603661567 -71628549 -2364417 -62465 -2 -3 20 562561325
            -249491183 1392581983 -750485410 -929627461 2122842629
            -74851457 1162153541</internalNodes>
          <leafValues>
            -9.3612474203109741e-01 1.6594180464744568e-01
            -8.2011830806732178e-01 7.9440784454345703e-01</leafValues></_>
        <_>
          <internalNodes>
            1 2 35 -48890480 -10486305 -685777635 -2099201 -4326403
            -263681 -2228227 -1 0 -1 37 -169 -2109185 -682625537
            -136317985 -67372033 -68179313 -5506049 -67109889 -2 -3 12
            1943187959 291230675 1359020051 969351456 1360068665
            -2096562144 1363346291 1366622976</internalNodes>
          <leafValues>
            -8.9691442251205444e-01 2.7266988158226013e-01
            -8.0391210317611694e-01 8.1352114677429199e-01</leafValues></_>
        <_>
          <internalNodes>
            1 2 26 821084095 -2305025 1372847615 2013134847 1068481535
            -68159333 1073528828 -1073955842 0 -1 29 825491387
            -550374978 1606808575 -175617 2142238975 -7629909
            -1157891073 -4194561 -2 -3 2 -1257168606 -137146029
            336597473 -707306599 -1971288005 -98893688 16894911
            453726363</internalNodes>
          <leafValues>
            -9.2130482196807861e-01 4.7614729404449463e-01
            -8.0601513385772705e-01 7.4937450885772705e-01</leafValues></_>
        <_>
          <internalNodes>
            1 2 21 -136511592 -10853413 -536880129 -1057 1280067788
            533464329 -69218561 2147436047 0 -1 31 -1 -2106627 -69217921
            -2107937 -4456708 -4223745 -12320774 -1025 -2 -3 34
            278477630 -783236654 -784272897 -647740453 -57935108
            -393510709 -80809992 704670634</internalNodes>
          <leafValues>
            -8.9658445119857788e-01 3.4794095158576965e-01
            -7.9188436269760132e-01 7.3596626520156860e-01</leafValues></_>
        <_>
          <internalNodes>
            1 2 17 -1208018170 1975233021 -136710657 -134220849
            -1967447497 -1377238485 -1140854785 -8955089 0 -1 25
            -119802497 -682137353 -46927361 -35916289 -604544009
            -125042637 -67371009 -12587153 -2 -3 13 -496255236 -82406632
            -787352618 -709570300 -267849051 -644743039 -247334213
            1972852084</internalNodes>
          <leafValues>
            -9.5377808809280396e-01 2.2550588846206665e-01
            -8.3318042755126953e-01 6.9382923841476440e-01</leafValues></_>
        <_>
          <internalNodes>
            1 2 19 -1964267720 -682700564 -513813507 -543435816
            -1274306053 -1147420469 -1616151553 -44555 0 -1 23
            -897387788 -1148517944 1939484885 -61200 -226055749
            -360611704 -1081445378 -33325 -2 -3 28 4915204 -485425121
            1360089341 2102870157 565850352 -393600893 -1148455172
            -1140901313</internalNodes>
          <leafValues>
            -9.2885684967041016e-01 1.2260577082633972e-01
            -9.0769046545028687e-01 7.0563030242919922e-01</leafValues></_>
        <_>
          <internalNodes>
            1 2 22 -211972 2145364216 -785231371 -1073788451 301971963
            -1147469809 469703163 -4259635 0 -1 11 -136839681 -2109101
            1095848413 -176161281 -1326206721 -1181046591 335483391
            -7169 -2 -3 6 -1361072566 -288652665 1073778818 -436043773
            1359151682 889913346 1426784515 1464595291</internalNodes>
          <leafValues>
            -8.9353668689727783e-01 5.4785633087158203e-01
            -6.7814373970031738e-01 6.7114806175231934e-01</leafValues></_></weakClassifiers></_></stages>
  <features>
    <_>
      <rect>
        0 0 2 10</rect></_>
    <_>
      <rect>
        0 0 3 10</rect></_>
    <_>
      <rect>
        0 0 5 1</rect></_>
    <_>
      <rect>
        0 3 2 5</rect></_>
    <_>
      <rect>
        0 9 4 5</rect></_>
    <_>
      <rect>
        0 12 3 3</rect></_>
    <_>
      <rect>
        0 14 1 4</rect></_>
    <_>
      <rect>
        0 18 4 2</rect></_>
    <_>
      <rect>
        0 23 3 3</rect></_>
    <_>
      <rect>
        1 2 2 8</rect></_>
    <_>
      <rect>
        1 8 2 8</rect></_>
    <_>
      <rect>
        3 0 3 5</rect></_>
    <_>
      <rect>
        3 6 2 7</rect></_>
    <_>
      <rect>
        3 9 2 3</rect></_>
    <_>
      <rect>
        3 13 3 3</rect></_>
    <_>
      <rect>
        4 8 4 2</rect></_>
    <_>
      <rect>
        4 10 2 4</rect></_>
    <_>
      <rect>
        4 13 3 2</rect></_>
    <_>
      <rect>
        4 16 4 2</rect></_>
    <_>
      <rect>
        4 19 1 2</rect></_>
    <_>
      <rect>
        4 20 3 2</rect></_>
    <_>
      <rect>
        4 21 3 3</rect></_>
    <_>
      <rect>
        5 1 2 4</rect></_>
    <_>
      <rect>
        5 3 1 1</rect></_>
    <_>
      <rect>
        5 9 2 2</rect></_>
    <_>
      <rect>
        5 13 3 2</rect></_>
    <_>
      <rect>
        6 8 2 2</rect></_>
    <_>
      <rect>
        6 9 2 2</rect></_>
    <_>
      <rect>
        6 14 2 2</rect></_>
    <_>
      <rect>
        6 20 2 1</rect></_>
    <_>
      <rect>
        7 0 3 8</rect></_>
    <_>
      <rect>
        7 2 3 2</rect></_>
    <_>
      <rect>
        7 5 3 7</rect></_>
    <_>
      <rect>
        7 8 3 8</rect></_>
    <_>
      <rect>
        7 10 2 2</rect></_>
    <_>
      <rect>
        7 23 3 3</rect></_>
    <_>
      <rect>
        8 0 2 2</rect></_>
    <_>
      <rect>
        10 0 2 2</rect></_>
    <_>
      <rect>
        10 3 2 9</rect></_></features></cascade>
</opencv_storage>
