<?xml version="1.0"?>
<opencv_storage>
<cascade>
  <stageType>BOOST</stageType>
  <featureType>LBP</featureType>
  <height>32</height>
  <width>16</width>
  <stageParams>
    <boostType>GAB</boostType>
    <minHitRate>9.9900001287460327e-01</minHitRate>
    <maxFalseAlarm>1.0000000474974513e-03</maxFalseAlarm>
    <weightTrimRate>9.4999999999999996e-01</weightTrimRate>
    <maxDepth>2</maxDepth>
    <maxWeakCount>30</maxWeakCount></stageParams>
  <featureParams>
    <maxCatCount>256</maxCatCount>
    <featSize>1</featSize></featureParams>
  <stageNum>3</stageNum>
  <stages>
    <!-- stage 0 -->
    <_>
      <maxWeakCount>5</maxWeakCount>
      <stageThreshold>1.0084654092788696e+00</stageThreshold>
      <weakClassifiers>
        <_>
          <internalNodes>
            1 2 8 -1 -134220833 -1017392377 -1025 -3146753 -82845297
            -1025 2147483647 0 -1 15 -1 -607126529 -787746085 -33554481
            -69209089 -823402321 -69207041 -134217729 -2 -3 0 -687666353
            17760259 16973827 453181443 17762315 1966081 184582151
            1876922127</internalNodes>
          <leafValues>
            -9.9964654445648193e-01 -3.9393940567970276e-01 -1.
            9.8015874624252319e-01</leafValues></_>
        <_>
          <internalNodes>
            1 2 8 -1 -134220833 -1017392377 -1025 -3146753 -82845297
            -1025 2147483647 0 -1 12 -1 -170919473 -1010568701 -2099349
            -134220817 1090249419 -204475393 -134217729 -2 -3 24 82
            134217728 268435456 268435456 524296 0 32898 688298</internalNodes>
          <leafValues>
            -1. 1.1358847469091415e-01 -8.9782035350799561e-01
            9.4004809856414795e-01</leafValues></_>
        <_>
          <internalNodes>
            1 2 1 -1 -3146753 -808723057 -69208065 -1049601 -46140529
            1944059903 2147483647 0 -1 2 -1 -540016645 -636497133
            -2104353 -678431857 1540094187 -67109889 -1 -2 -3 6 -594168
            -65537 2147282688 -36866 -1 -1 2136473599 -4097</internalNodes>
          <leafValues>
            -9.9969804286956787e-01 2.8685203194618225e-01
            -4.4974690675735474e-01 9.6179866790771484e-01</leafValues></_>
        <_>
          <internalNodes>
            1 2 16 -1 -1057 -639634945 -3105 -1025 -1310721 -1
            2147483647 0 -1 25 -1 -69210081 -1056712225 -1050657
            -69206053 1586224075 -136578049 -1 -2 -3 18 -20562 -1
            2147483518 -545259649 -4097 -1 -11053729 -545302689</internalNodes>
          <leafValues>
            -9.9836331605911255e-01 3.3099204301834106e-01
            -3.2173037528991699e-01 9.5003187656402588e-01</leafValues></_>
        <_>
          <internalNodes>
            1 2 13 -18 -1025 -77611138 -1 -1 -2106369 2134862844 -129 0
            -1 22 -285216769 -1025 -513 -33 -2097153 -71304193 -1 -1 -2
            -3 21 -671623169 -77861489 336136587 -611331433 -779619121
            -611942261 2055425019 2147480575</internalNodes>
          <leafValues>
            -9.5662820339202881e-01 7.8853136301040649e-01
            -9.7755283117294312e-01 9.7600609064102173e-01</leafValues></_></weakClassifiers></_>
    <!-- stage 1 -->
    <_>
      <maxWeakCount>4</maxWeakCount>
      <stageThreshold>-4.0108109824359417e-03</stageThreshold>
      <weakClassifiers>
        <_>
          <internalNodes>
            1 2 6 -69714 -1 -200948 -942082 -1 -1 -2228228 -4098 0 -1 9
            -711342707 -246295468 1365398286 -117403584 -2138379637
            -1073379192 -1968510293 -88147286 -2 -3 28 1343232031
            1342242819 -2147482219 1744896009 -1879012711 1074331776
            9175544 453804736</internalNodes>
          <leafValues>
            -9.6724909543991089e-01 7.1150732040405273e-01
            -9.8181819915771484e-01 9.8718672990798950e-01</leafValues></_>
        <_>
          <internalNodes>
            1 2 7 -240392946 -217086053 -2083929892 -73854958 -360015125
            -643176312 -1465194280 -269753878 0 -1 27 -518851085
            -113225580 -804953966 -200883808 -930363222 -1195276151
            -360002881 -5242949 -2 -3 31 -989781451 8388610 16385 4
            -2147370321 -1610481533 1073922200 1193462988</internalNodes>
          <leafValues>
            -9.8107707500457764e-01 8.2583880424499512e-01
            -8.8933777809143066e-01 9.8521399497985840e-01</leafValues></_>
        <_>
          <internalNodes>
            1 2 4 -286331218 -65538 -4100 -4 -1 -1 -4098 -2 0 -1 30
            -611846849 -238059512 -939273986 -782974833 -1059194627
            -1970765649 -1162098436 -100664833 -2 -3 10 -804258801
            -838098430 -2147319402 -1602224126 -1073561399 -930611136
            110592 1090621474</internalNodes>
          <leafValues>
            -9.6961104869842529e-01 7.3818796873092651e-01
            -9.9156838655471802e-01 9.9584805965423584e-01</leafValues></_>
        <_>
          <internalNodes>
            1 2 14 -746325522 -796797567 -1006530084 -784285564
            -793982773 -1610428200 -87439124 -69510918 0 -1 11
            -623447042 -786300903 -787476264 -15199962 -1163155285
            -1434215736 -89458006 -5271925 -2 -3 26 -1069223855
            2098467089 -1857028095 1439137937 -2147448702 1611202560
            -2147434366 1860929931</internalNodes>
          <leafValues>
            -9.8865664005279541e-01 7.5608140230178833e-01
            -9.9815857410430908e-01 9.4846731424331665e-01</leafValues></_></weakClassifiers></_>
    <!-- stage 2 -->
    <_>
      <maxWeakCount>3</maxWeakCount>
      <stageThreshold>9.6642118692398071e-01</stageThreshold>
      <weakClassifiers>
        <_>
          <internalNodes>
            1 2 20 -146278529 -145752493 -2127490729 -6307021 -209329749
            -104251103 -754614142 2109993003 0 -1 5 -644787433
            -1726917359 -787760871 2031728951 -234759791 -787410300
            -742010787 -537133601 -2 -3 32 -821849087 1073774720
            -1879048192 265 128 128 4 8880259</internalNodes>
          <leafValues>
            -9.9788135290145874e-01 1. -9.2145013809204102e-01
            9.8928689956665039e-01</leafValues></_>
        <_>
          <internalNodes>
            1 2 19 -2099233 -237505661 2068001109 -12079273 -769408817
            -73670527 553681026 2006704263 0 -1 29 -81265669 -146730919
            289473021 -539246505 -217478437 -670987647 -1047870277 -5425
            -2 -3 17 -1072299840 -805289984 65607 1074823249 -1073708928
            32768 -2130673528 136315008</internalNodes>
          <leafValues>
            -9.9894946813583374e-01 1. -9.5304250717163086e-01
            9.8427647352218628e-01</leafValues></_>
        <_>
          <internalNodes>
            1 2 23 -203696641 -606087979 -115745313 -579546981
            -468139877 -561475307 -662514488 2128465035 0 -1 3
            -138676297 -82366185 -1852637037 -142372317 -70129221
            -74776575 1627621819 2147482623 -2 -3 33 -1064632319
            -2147287040 0 8454144 8 8 128 67342336</internalNodes>
          <leafValues>
            -9.9910968542098999e-01 -3.0868703126907349e-01 -1.
            9.8002612590789795e-01</leafValues></_></weakClassifiers></_></stages>
  <features>
    <_>
      <rect>
        0 0 1 6</rect></_>
    <_>
      <rect>
        0 0 1 7</rect></_>
    <_>
      <rect>
        0 0 1 9</rect></_>
    <_>
      <rect>
        0 0 2 4</rect></_>
    <_>
      <rect>
        0 0 4 3</rect></_>
    <_>
      <rect>
        0 0 4 6</rect></_>
    <_>
      <rect>
        0 0 5 2</rect></_>
    <_>
      <rect>
        0 0 5 3</rect></_>
    <_>
      <rect>
        0 5 1 8</rect></_>
    <_>
      <rect>
        0 12 5 6</rect></_>
    <_>
      <rect>
        0 19 1 3</rect></_>
    <_>
      <rect>
        0 20 4 4</rect></_>
    <_>
      <rect>
        1 0 1 10</rect></_>
    <_>
      <rect>
        1 0 5 8</rect></_>
    <_>
      <rect>
        1 0 5 9</rect></_>
    <_>
      <rect>
        1 4 1 9</rect></_>
    <_>
      <rect>
        1 6 1 3</rect></_>
    <_>
      <rect>
        1 6 4 7</rect></_>
    <_>
      <rect>
        1 8 5 8</rect></_>
    <_>
      <rect>
        1 9 1 3</rect></_>
    <_>
      <rect>
        1 9 1 4</rect></_>
    <_>
      <rect>
        1 13 1 3</rect></_>
    <_>
      <rect>
        1 13 3 6</rect></_>
    <_>
      <rect>
        1 17 3 2</rect></_>
    <_>
      <rect>
        1 22 4 3</rect></_>
    <_>
      <rect>
        2 5 1 9</rect></_>
    <_>
      <rect>
        2 8 2 6</rect></_>
    <_>
      <rect>
        2 10 3 7</rect></_>
    <_>
      <rect>
        5 8 3 3</rect></_>
    <_>
      <rect>
        5 13 1 1</rect></_>
    <_>
      <rect>
        6 10 3 7</rect></_>
    <_>
      <rect>
        8 4 2 7</rect></_>
    <_>
      <rect>
        11 0 1 6</rect></_>
    <_>
      <rect>
        11 8 1 6</rect></_></features></cascade>
</opencv_storage>
