<?xml version="1.0"?>
<opencv_storage>
<cascade>
  <stageType>BOOST</stageType>
  <featureType>HAAR</featureType>
  <height>32</height>
  <width>16</width>
  <stageParams>
    <boostType>GAB</boostType>
    <minHitRate>9.9900001287460327e-01</minHitRate>
    <maxFalseAlarm>1.0000000474974513e-03</maxFalseAlarm>
    <weightTrimRate>9.4999999999999996e-01</weightTrimRate>
    <maxDepth>2</maxDepth>
    <maxWeakCount>30</maxWeakCount></stageParams>
  <featureParams>
    <maxCatCount>0</maxCatCount>
    <featSize>1</featSize>
    <mode>BASIC</mode></featureParams>
  <stageNum>3</stageNum>
  <stages>
    <!-- stage 0 -->
    <_>
      <maxWeakCount>8</maxWeakCount>
      <stageThreshold>-1.0854487121105194e-01</stageThreshold>
      <weakClassifiers>
        <_>
          <internalNodes>
            1 2 17 -1.4498221874237061e-01 0 -1 119
            -7.0904125459492207e-04 -2 -3 19 -2.8554442524909973e-01</internalNodes>
          <leafValues>
            9.6135592460632324e-01 -6.8627452850341797e-01
            3.9759036898612976e-01 -9.7900617122650146e-01</leafValues></_>
        <_>
          <internalNodes>
            1 2 124 -6.2613703310489655e-02 0 -1 22
            -5.1763467490673065e-02 -2 -3 63 4.6719167381525040e-02</internalNodes>
          <leafValues>
            9.1576206684112549e-01 -9.3051517009735107e-01
            -9.2876857519149780e-01 4.4928291440010071e-01</leafValues></_>
        <_>
          <internalNodes>
            1 2 8 -5.5591054260730743e-02 0 -1 94
            -1.9429463427513838e-03 -2 -3 20 -2.5469541549682617e-01</internalNodes>
          <leafValues>
            8.8305181264877319e-01 -2.8447058796882629e-01
            5.4308116436004639e-01 -9.3960541486740112e-01</leafValues></_>
        <_>
          <internalNodes>
            1 2 53 -3.5958066582679749e-02 0 -1 24
            -1.6374379629269242e-03 -2 -3 129 -7.0181369781494141e-02</internalNodes>
          <leafValues>
            8.7018924951553345e-01 -7.8651809692382813e-01
            4.6508514881134033e-01 -8.1321781873703003e-01</leafValues></_>
        <_>
          <internalNodes>
            1 2 107 -1.1482783406972885e-01 0 -1 41
            1.3742982409894466e-02 -2 -3 11 -2.9137736558914185e-01</internalNodes>
          <leafValues>
            8.2012498378753662e-01 -6.7632150650024414e-01
            4.2665898799896240e-01 -8.8779723644256592e-01</leafValues></_>
        <_>
          <internalNodes>
            1 2 83 -2.3616287857294083e-02 0 -1 49
            -9.3767717480659485e-03 -2 -3 88 -5.8996051549911499e-02</internalNodes>
          <leafValues>
            -8.9737105369567871e-01 7.5692141056060791e-01
            6.7938864231109619e-01 -8.1669849157333374e-01</leafValues></_>
        <_>
          <internalNodes>
            1 2 144 -2.6081842370331287e-03 0 -1 25
            -3.4342654980719090e-03 -2 -3 97 -2.2608917951583862e-01</internalNodes>
          <leafValues>
            6.3746422529220581e-01 -7.5365144014358521e-01
            8.7199670076370239e-01 -8.2394701242446899e-01</leafValues></_>
        <_>
          <internalNodes>
            1 2 75 2.7051871642470360e-02 0 -1 65
            -8.6001023650169373e-02 -2 -3 71 6.5283738076686859e-03</internalNodes>
          <leafValues>
            5.2898663282394409e-01 -6.9394874572753906e-01
            8.4592425823211670e-01 -8.7985092401504517e-01</leafValues></_></weakClassifiers></_>
    <!-- stage 1 -->
    <_>
      <maxWeakCount>20</maxWeakCount>
      <stageThreshold>1.2362163513898849e-01</stageThreshold>
      <weakClassifiers>
        <_>
          <internalNodes>
            1 2 103 -1.3940719887614250e-02 0 -1 17
            -2.1339769661426544e-01 -2 -3 67 -8.6661688983440399e-02</internalNodes>
          <leafValues>
            8.0285286903381348e-01 -4.7331786155700684e-01
            6.0402683913707733e-02 -8.4386128187179565e-01</leafValues></_>
        <_>
          <internalNodes>
            1 2 51 5.0092525780200958e-02 0 -1 108
            -5.3348261862993240e-02 -2 -3 125 -3.3888943493366241e-02</internalNodes>
          <leafValues>
            5.9302824735641479e-01 -7.1319788694381714e-01
            7.1214401721954346e-01 -5.9969013929367065e-01</leafValues></_>
        <_>
          <internalNodes>
            1 2 142 -2.6698510628193617e-03 0 -1 102
            -3.6462362855672836e-02 -2 -3 137 -2.5330921635031700e-02</internalNodes>
          <leafValues>
            6.2830954790115356e-01 -8.8640499114990234e-01
            -7.4166756868362427e-01 4.2810401320457458e-01</leafValues></_>
        <_>
          <internalNodes>
            1 2 3 -2.1774407476186752e-02 0 -1 127
            -1.3765097537543625e-04 -2 -3 84 -8.5962712764739990e-03</internalNodes>
          <leafValues>
            4.7696536779403687e-01 -7.1585440635681152e-01
            1.9577671587467194e-01 -7.9953163862228394e-01</leafValues></_>
        <_>
          <internalNodes>
            1 2 106 -3.4158108755946159e-03 0 -1 110
            -6.8809077143669128e-02 -2 -3 74 -5.7988767512142658e-03</internalNodes>
          <leafValues>
            7.3425960540771484e-01 -8.6803603172302246e-01
            -8.0935275554656982e-01 3.3437928557395935e-01</leafValues></_>
        <_>
          <internalNodes>
            1 2 73 3.3794308546930552e-03 0 -1 89 1.0431631468236446e-02
            -2 -3 93 -8.2380950450897217e-02</internalNodes>
          <leafValues>
            -2.2296959161758423e-01 5.6927102804183960e-01
            4.6570622920989990e-01 -8.9612716436386108e-01</leafValues></_>
        <_>
          <internalNodes>
            1 2 1 -5.5860885186120868e-04 0 -1 42
            -2.6743400841951370e-02 -2 -3 1 6.9287931546568871e-04</internalNodes>
          <leafValues>
            5.3930338472127914e-02 -8.3272266387939453e-01
            5.4005247354507446e-01 -5.1105767488479614e-01</leafValues></_>
        <_>
          <internalNodes>
            1 2 61 -1.2604833500517998e-05 0 -1 82
            2.6894191250903532e-05 -2 -3 18 -2.4754941463470459e-01</internalNodes>
          <leafValues>
            -4.5496216416358948e-01 5.1582878828048706e-01
            1.8222786486148834e-02 -8.0504930019378662e-01</leafValues></_>
        <_>
          <internalNodes>
            1 2 86 8.3410448860377073e-04 0 -1 64
            -9.4508973415941000e-04 -2 -3 133 -7.4546099640429020e-03</internalNodes>
          <leafValues>
            -4.2060366272926331e-01 4.2645952105522156e-01
            1.5808829665184021e-01 -8.8391357660293579e-01</leafValues></_>
        <_>
          <internalNodes>
            1 2 139 5.8835789561271667e-02 0 -1 114
            1.4788848161697388e-01 -2 -3 76 -2.1308599971234798e-03</internalNodes>
          <leafValues>
            -6.0490608215332031e-01 7.8317701816558838e-01
            -8.1211209297180176e-01 4.7979667782783508e-01</leafValues></_>
        <_>
          <internalNodes>
            1 2 59 3.7489889655262232e-04 0 -1 126
            -1.3243980705738068e-02 -2 -3 78 2.8730658814311028e-03</internalNodes>
          <leafValues>
            3.8321748375892639e-01 -7.8579586744308472e-01
            3.8749319314956665e-01 -6.7873591184616089e-01</leafValues></_>
        <_>
          <internalNodes>
            1 2 116 3.2119655515998602e-03 0 -1 112
            6.6263172775506973e-03 -2 -3 56 -3.5757608711719513e-02</internalNodes>
          <leafValues>
            -6.6874599456787109e-01 2.5224667787551880e-01
            -7.8339570760726929e-01 6.8013483285903931e-01</leafValues></_>
        <_>
          <internalNodes>
            1 2 151 6.1238859780132771e-04 0 -1 150
            -1.6601394163444638e-03 -2 -3 68 -9.9924482405185699e-02</internalNodes>
          <leafValues>
            -7.1824610233306885e-01 4.2420333623886108e-01
            6.2766516208648682e-01 -8.2432180643081665e-01</leafValues></_>
        <_>
          <internalNodes>
            1 2 14 -7.7384704491123557e-04 0 -1 5
            -1.9456569105386734e-02 -2 -3 10 1.6174640040844679e-03</internalNodes>
          <leafValues>
            8.7779402732849121e-02 -9.0777468681335449e-01
            2.7286455035209656e-01 -8.5521107912063599e-01</leafValues></_>
        <_>
          <internalNodes>
            1 2 113 4.7446414828300476e-04 0 -1 35
            -4.8299193382263184e-01 -2 -3 85 7.1619600057601929e-03</internalNodes>
          <leafValues>
            6.4101088047027588e-01 -7.4025207757949829e-01
            3.3321759104728699e-01 -7.2293573617935181e-01</leafValues></_>
        <_>
          <internalNodes>
            1 2 7 -1.0543651878833771e-02 0 -1 120
            -9.8360935226082802e-04 -2 -3 6 1.5017468482255936e-02</internalNodes>
          <leafValues>
            6.6568487882614136e-01 -4.8509025573730469e-01
            -5.1132136583328247e-01 6.1234939098358154e-01</leafValues></_>
        <_>
          <internalNodes>
            1 2 87 -4.7642521560192108e-02 0 -1 37
            -2.2179104387760162e-02 -2 -3 117 -1.8153533339500427e-02</internalNodes>
          <leafValues>
            -9.8894250392913818e-01 7.3314791917800903e-01
            4.3894979357719421e-01 -4.7514969110488892e-01</leafValues></_>
        <_>
          <internalNodes>
            1 2 45 -3.2843403518199921e-02 0 -1 48
            7.8530713915824890e-02 -2 -3 118 -6.9920960813760757e-03</internalNodes>
          <leafValues>
            5.3598904609680176e-01 -8.0095887184143066e-01
            4.8966047167778015e-01 -7.2694683074951172e-01</leafValues></_>
        <_>
          <internalNodes>
            1 2 115 2.3012692108750343e-03 0 -1 100
            -3.5447522997856140e-02 -2 -3 92 3.1562289223074913e-04</internalNodes>
          <leafValues>
            3.4189337491989136e-01 -7.3558980226516724e-01
            -4.6422231197357178e-01 6.1535865068435669e-01</leafValues></_>
        <_>
          <internalNodes>
            1 2 138 -5.1803945098072290e-04 0 -1 149
            -1.0011674836277962e-02 -2 -3 12 3.7571131251752377e-03</internalNodes>
          <leafValues>
            3.3082315325737000e-01 -8.5703998804092407e-01
            3.2298454642295837e-01 -6.8578016757965088e-01</leafValues></_></weakClassifiers></_>
    <!-- stage 2 -->
    <_>
      <maxWeakCount>24</maxWeakCount>
      <stageThreshold>-2.3524425923824310e-01</stageThreshold>
      <weakClassifiers>
        <_>
          <internalNodes>
            1 2 69 -1.5770897734910250e-03 0 -1 46
            -4.0029957890510559e-02 -2 -3 36 -1.9162502139806747e-02</internalNodes>
          <leafValues>
            9.5709569752216339e-02 -9.0023487806320190e-01
            5.5000895261764526e-01 -5.2808064222335815e-01</leafValues></_>
        <_>
          <internalNodes>
            1 2 140 -1.5847119502723217e-03 0 -1 96
            -2.8802317380905151e-01 -2 -3 141 3.3092829398810863e-03</internalNodes>
          <leafValues>
            3.1773319840431213e-01 -8.5391795635223389e-01
            -6.3441699743270874e-01 4.2233428359031677e-01</leafValues></_>
        <_>
          <internalNodes>
            1 2 4 -7.0965558290481567e-02 0 -1 77 1.0285846889019012e-02
            -2 -3 130 1.3875210657715797e-02</internalNodes>
          <leafValues>
            -3.0082932114601135e-01 6.5521919727325439e-01
            -7.1895372867584229e-01 3.1709384173154831e-02</leafValues></_>
        <_>
          <internalNodes>
            1 2 121 -2.5368522619828582e-04 0 -1 16
            -1.4504171907901764e-01 -2 -3 121 9.7043957794085145e-05</internalNodes>
          <leafValues>
            1.3788023591041565e-01 -7.5428748130798340e-01
            5.9987920522689819e-01 -2.4443678557872772e-01</leafValues></_>
        <_>
          <internalNodes>
            1 2 123 -8.3118649199604988e-03 0 -1 72
            -1.9734238740056753e-03 -2 -3 98 -1.4389635995030403e-02</internalNodes>
          <leafValues>
            -6.5938204526901245e-01 4.7291070222854614e-01
            4.5096244663000107e-02 -6.9012534618377686e-01</leafValues></_>
        <_>
          <internalNodes>
            1 2 31 -2.6719744710135274e-05 0 -1 95
            8.2553678657859564e-04 -2 -3 21 -1.5595383942127228e-02</internalNodes>
          <leafValues>
            -2.7814829349517822e-01 4.9784845113754272e-01
            -1.0276759415864944e-01 -9.3296211957931519e-01</leafValues></_>
        <_>
          <internalNodes>
            1 2 62 -2.8347663581371307e-02 0 -1 81
            1.9942102953791618e-03 -2 -3 60 6.9045692682266235e-02</internalNodes>
          <leafValues>
            -4.1956844925880432e-01 6.0014790296554565e-01
            -5.2603769302368164e-01 3.8568994402885437e-01</leafValues></_>
        <_>
          <internalNodes>
            1 2 105 -3.3350132871419191e-03 0 -1 38
            9.7361421212553978e-03 -2 -3 131 -2.5031520635820925e-05</internalNodes>
          <leafValues>
            -7.5022119283676147e-01 5.9673756361007690e-01
            3.8212934136390686e-01 -4.4811016321182251e-01</leafValues></_>
        <_>
          <internalNodes>
            1 2 32 -7.5899728108197451e-04 0 -1 148
            7.0380028337240219e-03 -2 -3 136 -2.1418519318103790e-03</internalNodes>
          <leafValues>
            -6.7340028285980225e-01 5.5043423175811768e-01
            -5.0147658586502075e-01 3.6358591914176941e-01</leafValues></_>
        <_>
          <internalNodes>
            1 2 0 1.1273895324848127e-05 0 -1 13 -4.5936880633234978e-04
            -2 -3 28 2.0406902767717838e-03</internalNodes>
          <leafValues>
            -6.3978320360183716e-01 2.8211250901222229e-01
            -7.5274533033370972e-01 2.6144953444600105e-02</leafValues></_>
        <_>
          <internalNodes>
            1 2 143 -2.2685457952320576e-03 0 -1 146
            -9.7434734925627708e-03 -2 -3 143 9.3970459420233965e-04</internalNodes>
          <leafValues>
            3.4679943323135376e-01 -8.5756874084472656e-01
            2.8536951541900635e-01 -5.1206576824188232e-01</leafValues></_>
        <_>
          <internalNodes>
            1 2 122 -1.1271434836089611e-02 0 -1 2
            2.4751874152570963e-03 -2 -3 54 -1.0342946648597717e-01</internalNodes>
          <leafValues>
            4.6740055084228516e-01 -7.2541105747222900e-01
            3.1791615486145020e-01 -5.0033366680145264e-01</leafValues></_>
        <_>
          <internalNodes>
            1 2 101 -3.1499718315899372e-03 0 -1 134
            2.3181449621915817e-02 -2 -3 145 1.8739155493676662e-03</internalNodes>
          <leafValues>
            -8.2096248865127563e-01 8.2073384523391724e-01
            2.6895657181739807e-01 -5.3936719894409180e-01</leafValues></_>
        <_>
          <internalNodes>
            1 2 90 -1.1272446718066931e-03 0 -1 47
            7.4948798865079880e-03 -2 -3 147 -8.1318418961018324e-04</internalNodes>
          <leafValues>
            -8.2586908340454102e-01 1.3581612706184387e-01
            3.6214205622673035e-01 -3.9171549677848816e-01</leafValues></_>
        <_>
          <internalNodes>
            1 2 80 1.1608435306698084e-03 0 -1 50
            -1.7064280807971954e-02 -2 -3 132 2.2362847812473774e-03</internalNodes>
          <leafValues>
            3.8802036643028259e-01 -5.2255958318710327e-01
            4.8999747633934021e-01 -4.9193692207336426e-01</leafValues></_>
        <_>
          <internalNodes>
            1 2 55 1.1338947806507349e-03 0 -1 52 1.4284371864050627e-03
            -2 -3 43 -8.6639791727066040e-02</internalNodes>
          <leafValues>
            -2.7997058629989624e-01 3.9486449956893921e-01
            5.2291411161422729e-01 -8.4064364433288574e-01</leafValues></_>
        <_>
          <internalNodes>
            1 2 34 -2.2649012971669436e-03 0 -1 91
            3.3558215945959091e-03 -2 -3 40 1.5720942988991737e-02</internalNodes>
          <leafValues>
            2.8649127483367920e-01 -7.9857420921325684e-01
            -7.2818773984909058e-01 5.2609974145889282e-01</leafValues></_>
        <_>
          <internalNodes>
            1 2 9 -1.7006634152494371e-04 0 -1 15
            -1.8043471500277519e-02 -2 -3 27 -6.4472079277038574e-02</internalNodes>
          <leafValues>
            -2.1754385530948639e-01 -8.9071691036224365e-01
            -6.6844707727432251e-01 2.3190730810165405e-01</leafValues></_>
        <_>
          <internalNodes>
            1 2 128 -2.4442616268061101e-04 0 -1 58
            6.3585978932678699e-04 -2 -3 104 5.6879855692386627e-03</internalNodes>
          <leafValues>
            4.2000231146812439e-01 -3.3656966686248779e-01
            -6.8395048379898071e-01 4.5450276136398315e-01</leafValues></_>
        <_>
          <internalNodes>
            1 2 66 -9.8851934075355530e-02 0 -1 135
            2.9392582364380360e-03 -2 -3 109 -7.6375223696231842e-02</internalNodes>
          <leafValues>
            3.5988870263099670e-01 -6.8635475635528564e-01
            3.1168597936630249e-01 -6.1780107021331787e-01</leafValues></_>
        <_>
          <internalNodes>
            1 2 79 -2.7462369762361050e-03 0 -1 29
            -2.6366828009486198e-02 -2 -3 111 6.9958725944161415e-03</internalNodes>
          <leafValues>
            -8.7730139493942261e-01 3.5498541593551636e-01
            -7.2148805856704712e-01 3.0643436312675476e-01</leafValues></_>
        <_>
          <internalNodes>
            1 2 30 -1.1780441273003817e-03 0 -1 57
            2.0721764303743839e-03 -2 -3 39 -1.3910875655710697e-02</internalNodes>
          <leafValues>
            2.1926791965961456e-01 -7.8894096612930298e-01
            2.7696204185485840e-01 -8.4892636537551880e-01</leafValues></_>
        <_>
          <internalNodes>
            1 2 23 2.0191005896776915e-03 0 -1 44 4.9568838439881802e-03
            -2 -3 70 1.5049889916554093e-03</internalNodes>
          <leafValues>
            -5.9548562765121460e-01 6.1301909387111664e-02
            4.4306117296218872e-01 -8.3639138936996460e-01</leafValues></_>
        <_>
          <internalNodes>
            1 2 26 1.5119036659598351e-02 0 -1 33 1.1263141641393304e-04
            -2 -3 99 7.8946009278297424e-02</internalNodes>
          <leafValues>
            2.9964444041252136e-01 -4.5742547512054443e-01
            -7.8017890453338623e-01 5.0417286157608032e-01</leafValues></_></weakClassifiers></_></stages>
  <features>
    <_>
      <rects>
        <_>
          0 0 1 2 -1.</_>
        <_>
          0 1 1 1 2.</_></rects>
      <tilted>0</tilted></_>
    <_>
      <rects>
        <_>
          0 0 6 1 -1.</_>
        <_>
          3 0 3 1 2.</_></rects>
      <tilted>0</tilted></_>
    <_>
      <rects>
        <_>
          0 0 8 3 -1.</_>
        <_>
          4 0 4 3 2.</_></rects>
      <tilted>0</tilted></_>
    <_>
      <rects>
        <_>
          0 0 5 16 -1.</_>
        <_>
          0 8 5 8 2.</_></rects>
      <tilted>0</tilted></_>
    <_>
      <rects>
        <_>
          0 0 14 9 -1.</_>
        <_>
          0 3 14 3 3.</_></rects>
      <tilted>0</tilted></_>
    <_>
      <rects>
        <_>
          0 2 3 8 -1.</_>
        <_>
          1 2 1 8 3.</_></rects>
      <tilted>0</tilted></_>
    <_>
      <rects>
        <_>
          0 2 2 24 -1.</_>
        <_>
          1 2 1 24 2.</_></rects>
      <tilted>0</tilted></_>
    <_>
      <rects>
        <_>
          0 3 3 22 -1.</_>
        <_>
          1 3 1 22 3.</_></rects>
      <tilted>0</tilted></_>
    <_>
      <rects>
        <_>
          0 4 4 25 -1.</_>
        <_>
          2 4 2 25 2.</_></rects>
      <tilted>0</tilted></_>
    <_>
      <rects>
        <_>
          0 5 1 3 -1.</_>
        <_>
          0 6 1 1 3.</_></rects>
      <tilted>0</tilted></_>
    <_>
      <rects>
        <_>
          0 5 1 4 -1.</_>
        <_>
          0 7 1 2 2.</_></rects>
      <tilted>0</tilted></_>
    <_>
      <rects>
        <_>
          0 5 12 24 -1.</_>
        <_>
          4 5 4 24 3.</_></rects>
      <tilted>0</tilted></_>
    <_>
      <rects>
        <_>
          0 5 6 27 -1.</_>
        <_>
          0 14 6 9 3.</_></rects>
      <tilted>0</tilted></_>
    <_>
      <rects>
        <_>
          0 6 1 3 -1.</_>
        <_>
          0 7 1 1 3.</_></rects>
      <tilted>0</tilted></_>
    <_>
      <rects>
        <_>
          0 6 1 4 -1.</_>
        <_>
          0 8 1 2 2.</_></rects>
      <tilted>0</tilted></_>
    <_>
      <rects>
        <_>
          0 6 2 26 -1.</_>
        <_>
          1 6 1 26 2.</_></rects>
      <tilted>0</tilted></_>
    <_>
      <rects>
        <_>
          0 6 4 25 -1.</_>
        <_>
          2 6 2 25 2.</_></rects>
      <tilted>0</tilted></_>
    <_>
      <rects>
        <_>
          0 6 9 21 -1.</_>
        <_>
          3 6 3 21 3.</_></rects>
      <tilted>0</tilted></_>
    <_>
      <rects>
        <_>
          0 6 9 22 -1.</_>
        <_>
          3 6 3 22 3.</_></rects>
      <tilted>0</tilted></_>
    <_>
      <rects>
        <_>
          0 6 8 23 -1.</_>
        <_>
          4 6 4 23 2.</_></rects>
      <tilted>0</tilted></_>
    <_>
      <rects>
        <_>
          0 7 12 21 -1.</_>
        <_>
          4 7 4 21 3.</_></rects>
      <tilted>0</tilted></_>
    <_>
      <rects>
        <_>
          0 9 2 22 -1.</_>
        <_>
          1 9 1 22 2.</_></rects>
      <tilted>0</tilted></_>
    <_>
      <rects>
        <_>
          0 9 9 16 -1.</_>
        <_>
          3 9 3 16 3.</_></rects>
      <tilted>0</tilted></_>
    <_>
      <rects>
        <_>
          0 10 15 3 -1.</_>
        <_>
          0 11 15 1 3.</_></rects>
      <tilted>0</tilted></_>
    <_>
      <rects>
        <_>
          0 11 4 4 -1.</_>
        <_>
          2 11 2 4 2.</_></rects>
      <tilted>0</tilted></_>
    <_>
      <rects>
        <_>
          0 11 6 4 -1.</_>
        <_>
          3 11 3 4 2.</_></rects>
      <tilted>0</tilted></_>
    <_>
      <rects>
        <_>
          0 11 14 4 -1.</_>
        <_>
          7 11 7 4 2.</_></rects>
      <tilted>0</tilted></_>
    <_>
      <rects>
        <_>
          0 13 16 7 -1.</_>
        <_>
          8 13 8 7 2.</_></rects>
      <tilted>0</tilted></_>
    <_>
      <rects>
        <_>
          0 16 2 6 -1.</_>
        <_>
          1 16 1 6 2.</_></rects>
      <tilted>0</tilted></_>
    <_>
      <rects>
        <_>
          0 16 5 12 -1.</_>
        <_>
          0 20 5 4 3.</_></rects>
      <tilted>0</tilted></_>
    <_>
      <rects>
        <_>
          0 18 4 1 -1.</_>
        <_>
          2 18 2 1 2.</_></rects>
      <tilted>0</tilted></_>
    <_>
      <rects>
        <_>
          0 20 12 1 -1.</_>
        <_>
          6 20 6 1 2.</_></rects>
      <tilted>0</tilted></_>
    <_>
      <rects>
        <_>
          0 24 1 6 -1.</_>
        <_>
          0 26 1 2 3.</_></rects>
      <tilted>0</tilted></_>
    <_>
      <rects>
        <_>
          0 25 1 3 -1.</_>
        <_>
          0 26 1 1 3.</_></rects>
      <tilted>0</tilted></_>
    <_>
      <rects>
        <_>
          0 26 12 6 -1.</_>
        <_>
          6 26 6 6 2.</_></rects>
      <tilted>0</tilted></_>
    <_>
      <rects>
        <_>
          1 1 12 31 -1.</_>
        <_>
          5 1 4 31 3.</_></rects>
      <tilted>0</tilted></_>
    <_>
      <rects>
        <_>
          1 9 7 9 -1.</_>
        <_>
          1 12 7 3 3.</_></rects>
      <tilted>0</tilted></_>
    <_>
      <rects>
        <_>
          1 11 14 3 -1.</_>
        <_>
          8 11 7 3 2.</_></rects>
      <tilted>0</tilted></_>
    <_>
      <rects>
        <_>
          1 12 1 6 -1.</_>
        <_>
          1 14 1 2 3.</_></rects>
      <tilted>0</tilted></_>
    <_>
      <rects>
        <_>
          1 18 6 1 -1.</_>
        <_>
          4 18 3 1 2.</_></rects>
      <tilted>0</tilted></_>
    <_>
      <rects>
        <_>
          1 22 8 6 -1.</_>
        <_>
          1 22 4 3 2.</_>
        <_>
          5 25 4 3 2.</_></rects>
      <tilted>0</tilted></_>
    <_>
      <rects>
        <_>
          1 27 12 3 -1.</_>
        <_>
          5 27 4 3 3.</_></rects>
      <tilted>0</tilted></_>
    <_>
      <rects>
        <_>
          2 0 14 6 -1.</_>
        <_>
          2 2 14 2 3.</_></rects>
      <tilted>0</tilted></_>
    <_>
      <rects>
        <_>
          2 3 8 9 -1.</_>
        <_>
          2 6 8 3 3.</_></rects>
      <tilted>0</tilted></_>
    <_>
      <rects>
        <_>
          2 4 14 4 -1.</_>
        <_>
          2 6 14 2 2.</_></rects>
      <tilted>0</tilted></_>
    <_>
      <rects>
        <_>
          2 5 13 15 -1.</_>
        <_>
          2 10 13 5 3.</_></rects>
      <tilted>0</tilted></_>
    <_>
      <rects>
        <_>
          2 7 4 5 -1.</_>
        <_>
          4 7 2 5 2.</_></rects>
      <tilted>0</tilted></_>
    <_>
      <rects>
        <_>
          2 7 6 4 -1.</_>
        <_>
          2 7 3 2 2.</_>
        <_>
          5 9 3 2 2.</_></rects>
      <tilted>0</tilted></_>
    <_>
      <rects>
        <_>
          2 9 11 18 -1.</_>
        <_>
          2 18 11 9 2.</_></rects>
      <tilted>0</tilted></_>
    <_>
      <rects>
        <_>
          2 18 4 14 -1.</_>
        <_>
          2 25 4 7 2.</_></rects>
      <tilted>0</tilted></_>
    <_>
      <rects>
        <_>
          2 22 6 3 -1.</_>
        <_>
          5 22 3 3 2.</_></rects>
      <tilted>0</tilted></_>
    <_>
      <rects>
        <_>
          2 26 12 6 -1.</_>
        <_>
          2 29 12 3 2.</_></rects>
      <tilted>0</tilted></_>
    <_>
      <rects>
        <_>
          3 0 6 13 -1.</_>
        <_>
          6 0 3 13 2.</_></rects>
      <tilted>0</tilted></_>
    <_>
      <rects>
        <_>
          3 0 8 6 -1.</_>
        <_>
          3 3 8 3 2.</_></rects>
      <tilted>0</tilted></_>
    <_>
      <rects>
        <_>
          3 1 10 9 -1.</_>
        <_>
          3 4 10 3 3.</_></rects>
      <tilted>0</tilted></_>
    <_>
      <rects>
        <_>
          3 3 6 1 -1.</_>
        <_>
          6 3 3 1 2.</_></rects>
      <tilted>0</tilted></_>
    <_>
      <rects>
        <_>
          3 12 4 18 -1.</_>
        <_>
          3 18 4 6 3.</_></rects>
      <tilted>0</tilted></_>
    <_>
      <rects>
        <_>
          3 17 1 9 -1.</_>
        <_>
          3 20 1 3 3.</_></rects>
      <tilted>0</tilted></_>
    <_>
      <rects>
        <_>
          3 17 1 10 -1.</_>
        <_>
          3 22 1 5 2.</_></rects>
      <tilted>0</tilted></_>
    <_>
      <rects>
        <_>
          3 24 1 8 -1.</_>
        <_>
          3 28 1 4 2.</_></rects>
      <tilted>0</tilted></_>
    <_>
      <rects>
        <_>
          3 25 7 6 -1.</_>
        <_>
          3 28 7 3 2.</_></rects>
      <tilted>0</tilted></_>
    <_>
      <rects>
        <_>
          3 25 9 2 -1.</_>
        <_>
          3 26 9 1 2.</_></rects>
      <tilted>0</tilted></_>
    <_>
      <rects>
        <_>
          3 26 8 6 -1.</_>
        <_>
          3 28 8 2 3.</_></rects>
      <tilted>0</tilted></_>
    <_>
      <rects>
        <_>
          3 28 8 4 -1.</_>
        <_>
          3 30 8 2 2.</_></rects>
      <tilted>0</tilted></_>
    <_>
      <rects>
        <_>
          3 31 6 1 -1.</_>
        <_>
          6 31 3 1 2.</_></rects>
      <tilted>0</tilted></_>
    <_>
      <rects>
        <_>
          4 0 10 9 -1.</_>
        <_>
          4 3 10 3 3.</_></rects>
      <tilted>0</tilted></_>
    <_>
      <rects>
        <_>
          4 1 12 27 -1.</_>
        <_>
          4 10 12 9 3.</_></rects>
      <tilted>0</tilted></_>
    <_>
      <rects>
        <_>
          4 2 7 9 -1.</_>
        <_>
          4 5 7 3 3.</_></rects>
      <tilted>0</tilted></_>
    <_>
      <rects>
        <_>
          4 3 8 9 -1.</_>
        <_>
          4 6 8 3 3.</_></rects>
      <tilted>0</tilted></_>
    <_>
      <rects>
        <_>
          4 7 1 10 -1.</_>
        <_>
          4 12 1 5 2.</_></rects>
      <tilted>0</tilted></_>
    <_>
      <rects>
        <_>
          4 8 1 4 -1.</_>
        <_>
          4 10 1 2 2.</_></rects>
      <tilted>0</tilted></_>
    <_>
      <rects>
        <_>
          4 8 1 18 -1.</_>
        <_>
          4 14 1 6 3.</_></rects>
      <tilted>0</tilted></_>
    <_>
      <rects>
        <_>
          4 9 1 9 -1.</_>
        <_>
          4 12 1 3 3.</_></rects>
      <tilted>0</tilted></_>
    <_>
      <rects>
        <_>
          4 10 1 18 -1.</_>
        <_>
          4 16 1 6 3.</_></rects>
      <tilted>0</tilted></_>
    <_>
      <rects>
        <_>
          4 11 1 15 -1.</_>
        <_>
          4 16 1 5 3.</_></rects>
      <tilted>0</tilted></_>
    <_>
      <rects>
        <_>
          4 12 8 9 -1.</_>
        <_>
          4 15 8 3 3.</_></rects>
      <tilted>0</tilted></_>
    <_>
      <rects>
        <_>
          4 13 1 10 -1.</_>
        <_>
          4 18 1 5 2.</_></rects>
      <tilted>0</tilted></_>
    <_>
      <rects>
        <_>
          4 13 7 6 -1.</_>
        <_>
          4 15 7 2 3.</_></rects>
      <tilted>0</tilted></_>
    <_>
      <rects>
        <_>
          4 14 1 12 -1.</_>
        <_>
          4 20 1 6 2.</_></rects>
      <tilted>0</tilted></_>
    <_>
      <rects>
        <_>
          4 17 8 4 -1.</_>
        <_>
          4 19 8 2 2.</_></rects>
      <tilted>0</tilted></_>
    <_>
      <rects>
        <_>
          4 20 2 12 -1.</_>
        <_>
          5 20 1 12 2.</_></rects>
      <tilted>0</tilted></_>
    <_>
      <rects>
        <_>
          4 21 10 4 -1.</_>
        <_>
          4 23 10 2 2.</_></rects>
      <tilted>0</tilted></_>
    <_>
      <rects>
        <_>
          4 21 11 2 -1.</_>
        <_>
          4 22 11 1 2.</_></rects>
      <tilted>0</tilted></_>
    <_>
      <rects>
        <_>
          4 23 7 9 -1.</_>
        <_>
          4 26 7 3 3.</_></rects>
      <tilted>0</tilted></_>
    <_>
      <rects>
        <_>
          4 29 6 3 -1.</_>
        <_>
          4 30 6 1 3.</_></rects>
      <tilted>0</tilted></_>
    <_>
      <rects>
        <_>
          4 30 9 2 -1.</_>
        <_>
          7 30 3 2 3.</_></rects>
      <tilted>0</tilted></_>
    <_>
      <rects>
        <_>
          4 31 4 1 -1.</_>
        <_>
          6 31 2 1 2.</_></rects>
      <tilted>0</tilted></_>
    <_>
      <rects>
        <_>
          5 0 4 9 -1.</_>
        <_>
          5 3 4 3 3.</_></rects>
      <tilted>0</tilted></_>
    <_>
      <rects>
        <_>
          5 3 7 9 -1.</_>
        <_>
          5 6 7 3 3.</_></rects>
      <tilted>0</tilted></_>
    <_>
      <rects>
        <_>
          5 6 7 6 -1.</_>
        <_>
          5 8 7 2 3.</_></rects>
      <tilted>0</tilted></_>
    <_>
      <rects>
        <_>
          5 10 1 10 -1.</_>
        <_>
          5 15 1 5 2.</_></rects>
      <tilted>0</tilted></_>
    <_>
      <rects>
        <_>
          5 12 1 10 -1.</_>
        <_>
          5 17 1 5 2.</_></rects>
      <tilted>0</tilted></_>
    <_>
      <rects>
        <_>
          5 12 5 4 -1.</_>
        <_>
          5 14 5 2 2.</_></rects>
      <tilted>0</tilted></_>
    <_>
      <rects>
        <_>
          5 16 5 9 -1.</_>
        <_>
          5 19 5 3 3.</_></rects>
      <tilted>0</tilted></_>
    <_>
      <rects>
        <_>
          5 16 7 4 -1.</_>
        <_>
          5 18 7 2 2.</_></rects>
      <tilted>0</tilted></_>
    <_>
      <rects>
        <_>
          5 20 2 12 -1.</_>
        <_>
          6 20 1 12 2.</_></rects>
      <tilted>0</tilted></_>
    <_>
      <rects>
        <_>
          6 5 9 24 -1.</_>
        <_>
          9 5 3 24 3.</_></rects>
      <tilted>0</tilted></_>
    <_>
      <rects>
        <_>
          6 8 9 18 -1.</_>
        <_>
          9 8 3 18 3.</_></rects>
      <tilted>0</tilted></_>
    <_>
      <rects>
        <_>
          6 9 6 5 -1.</_>
        <_>
          9 9 3 5 2.</_></rects>
      <tilted>0</tilted></_>
    <_>
      <rects>
        <_>
          6 11 10 6 -1.</_>
        <_>
          6 14 10 3 2.</_></rects>
      <tilted>0</tilted></_>
    <_>
      <rects>
        <_>
          6 11 10 9 -1.</_>
        <_>
          6 14 10 3 3.</_></rects>
      <tilted>0</tilted></_>
    <_>
      <rects>
        <_>
          6 12 3 10 -1.</_>
        <_>
          7 12 1 10 3.</_></rects>
      <tilted>0</tilted></_>
    <_>
      <rects>
        <_>
          6 12 4 6 -1.</_>
        <_>
          6 14 4 2 3.</_></rects>
      <tilted>0</tilted></_>
    <_>
      <rects>
        <_>
          6 17 4 6 -1.</_>
        <_>
          6 19 4 2 3.</_></rects>
      <tilted>0</tilted></_>
    <_>
      <rects>
        <_>
          6 17 5 6 -1.</_>
        <_>
          6 20 5 3 2.</_></rects>
      <tilted>0</tilted></_>
    <_>
      <rects>
        <_>
          6 27 10 5 -1.</_>
        <_>
          11 27 5 5 2.</_></rects>
      <tilted>0</tilted></_>
    <_>
      <rects>
        <_>
          7 2 6 2 -1.</_>
        <_>
          10 2 3 2 2.</_></rects>
      <tilted>0</tilted></_>
    <_>
      <rects>
        <_>
          7 6 9 25 -1.</_>
        <_>
          10 6 3 25 3.</_></rects>
      <tilted>0</tilted></_>
    <_>
      <rects>
        <_>
          7 8 4 9 -1.</_>
        <_>
          7 11 4 3 3.</_></rects>
      <tilted>0</tilted></_>
    <_>
      <rects>
        <_>
          7 10 3 20 -1.</_>
        <_>
          7 20 3 10 2.</_></rects>
      <tilted>0</tilted></_>
    <_>
      <rects>
        <_>
          7 11 4 9 -1.</_>
        <_>
          7 14 4 3 3.</_></rects>
      <tilted>0</tilted></_>
    <_>
      <rects>
        <_>
          7 11 6 6 -1.</_>
        <_>
          7 13 6 2 3.</_></rects>
      <tilted>0</tilted></_>
    <_>
      <rects>
        <_>
          7 12 6 6 -1.</_>
        <_>
          7 14 6 2 3.</_></rects>
      <tilted>0</tilted></_>
    <_>
      <rects>
        <_>
          7 13 3 5 -1.</_>
        <_>
          8 13 1 5 3.</_></rects>
      <tilted>0</tilted></_>
    <_>
      <rects>
        <_>
          7 14 8 15 -1.</_>
        <_>
          11 14 4 15 2.</_></rects>
      <tilted>0</tilted></_>
    <_>
      <rects>
        <_>
          7 18 4 6 -1.</_>
        <_>
          7 21 4 3 2.</_></rects>
      <tilted>0</tilted></_>
    <_>
      <rects>
        <_>
          7 21 2 4 -1.</_>
        <_>
          7 23 2 2 2.</_></rects>
      <tilted>0</tilted></_>
    <_>
      <rects>
        <_>
          8 3 2 9 -1.</_>
        <_>
          8 6 2 3 3.</_></rects>
      <tilted>0</tilted></_>
    <_>
      <rects>
        <_>
          8 10 1 9 -1.</_>
        <_>
          8 13 1 3 3.</_></rects>
      <tilted>0</tilted></_>
    <_>
      <rects>
        <_>
          8 15 4 5 -1.</_>
        <_>
          10 15 2 5 2.</_></rects>
      <tilted>0</tilted></_>
    <_>
      <rects>
        <_>
          8 21 4 5 -1.</_>
        <_>
          10 21 2 5 2.</_></rects>
      <tilted>0</tilted></_>
    <_>
      <rects>
        <_>
          9 0 6 1 -1.</_>
        <_>
          11 0 2 1 3.</_></rects>
      <tilted>0</tilted></_>
    <_>
      <rects>
        <_>
          9 0 5 6 -1.</_>
        <_>
          9 2 5 2 3.</_></rects>
      <tilted>0</tilted></_>
    <_>
      <rects>
        <_>
          9 6 4 8 -1.</_>
        <_>
          11 6 2 8 2.</_></rects>
      <tilted>0</tilted></_>
    <_>
      <rects>
        <_>
          9 6 6 23 -1.</_>
        <_>
          11 6 2 23 3.</_></rects>
      <tilted>0</tilted></_>
    <_>
      <rects>
        <_>
          9 7 6 18 -1.</_>
        <_>
          11 7 2 18 3.</_></rects>
      <tilted>0</tilted></_>
    <_>
      <rects>
        <_>
          9 12 2 6 -1.</_>
        <_>
          9 14 2 2 3.</_></rects>
      <tilted>0</tilted></_>
    <_>
      <rects>
        <_>
          9 16 2 7 -1.</_>
        <_>
          10 16 1 7 2.</_></rects>
      <tilted>0</tilted></_>
    <_>
      <rects>
        <_>
          9 24 2 4 -1.</_>
        <_>
          9 26 2 2 2.</_></rects>
      <tilted>0</tilted></_>
    <_>
      <rects>
        <_>
          10 6 6 19 -1.</_>
        <_>
          12 6 2 19 3.</_></rects>
      <tilted>0</tilted></_>
    <_>
      <rects>
        <_>
          10 13 6 10 -1.</_>
        <_>
          10 13 3 5 2.</_>
        <_>
          13 18 3 5 2.</_></rects>
      <tilted>0</tilted></_>
    <_>
      <rects>
        <_>
          10 14 2 8 -1.</_>
        <_>
          11 14 1 8 2.</_></rects>
      <tilted>0</tilted></_>
    <_>
      <rects>
        <_>
          10 15 2 10 -1.</_>
        <_>
          10 20 2 5 2.</_></rects>
      <tilted>0</tilted></_>
    <_>
      <rects>
        <_>
          10 29 4 3 -1.</_>
        <_>
          10 30 4 1 3.</_></rects>
      <tilted>0</tilted></_>
    <_>
      <rects>
        <_>
          11 6 1 16 -1.</_>
        <_>
          11 14 1 8 2.</_></rects>
      <tilted>0</tilted></_>
    <_>
      <rects>
        <_>
          11 8 1 15 -1.</_>
        <_>
          11 13 1 5 3.</_></rects>
      <tilted>0</tilted></_>
    <_>
      <rects>
        <_>
          11 10 1 10 -1.</_>
        <_>
          11 15 1 5 2.</_></rects>
      <tilted>0</tilted></_>
    <_>
      <rects>
        <_>
          11 10 3 18 -1.</_>
        <_>
          11 16 3 6 3.</_></rects>
      <tilted>0</tilted></_>
    <_>
      <rects>
        <_>
          12 0 4 1 -1.</_>
        <_>
          14 0 2 1 2.</_></rects>
      <tilted>0</tilted></_>
    <_>
      <rects>
        <_>
          12 0 4 32 -1.</_>
        <_>
          14 0 2 32 2.</_></rects>
      <tilted>0</tilted></_>
    <_>
      <rects>
        <_>
          12 8 1 9 -1.</_>
        <_>
          12 11 1 3 3.</_></rects>
      <tilted>0</tilted></_>
    <_>
      <rects>
        <_>
          12 11 4 3 -1.</_>
        <_>
          14 11 2 3 2.</_></rects>
      <tilted>0</tilted></_>
    <_>
      <rects>
        <_>
          12 14 2 18 -1.</_>
        <_>
          12 23 2 9 2.</_></rects>
      <tilted>0</tilted></_>
    <_>
      <rects>
        <_>
          12 17 1 9 -1.</_>
        <_>
          12 20 1 3 3.</_></rects>
      <tilted>0</tilted></_>
    <_>
      <rects>
        <_>
          13 0 1 16 -1.</_>
        <_>
          13 8 1 8 2.</_></rects>
      <tilted>0</tilted></_>
    <_>
      <rects>
        <_>
          13 4 2 6 -1.</_>
        <_>
          13 7 2 3 2.</_></rects>
      <tilted>0</tilted></_>
    <_>
      <rects>
        <_>
          13 5 3 5 -1.</_>
        <_>
          14 5 1 5 3.</_></rects>
      <tilted>0</tilted></_>
    <_>
      <rects>
        <_>
          13 7 3 18 -1.</_>
        <_>
          13 13 3 6 3.</_></rects>
      <tilted>0</tilted></_>
    <_>
      <rects>
        <_>
          13 13 3 3 -1.</_>
        <_>
          13 14 3 1 3.</_></rects>
      <tilted>0</tilted></_>
    <_>
      <rects>
        <_>
          13 17 3 5 -1.</_>
        <_>
          14 17 1 5 3.</_></rects>
      <tilted>0</tilted></_>
    <_>
      <rects>
        <_>
          14 18 1 9 -1.</_>
        <_>
          14 21 1 3 3.</_></rects>
      <tilted>0</tilted></_>
    <_>
      <rects>
        <_>
          14 20 1 6 -1.</_>
        <_>
          14 22 1 2 3.</_></rects>
      <tilted>0</tilted></_></features></cascade>
</opencv_storage>
